{"model_type": "xgboost", "opt_type": 1, "learner": {"attributes": {"best_iteration": "99", "best_score": "0.1301082315956487"}, "feature_names": ["swapOut", "lp_avg", "burn_mean_period", "active_period", "creator_holding_ratio", "swapIn"], "feature_types": ["float", "float", "float", "float", "float", "float"], "gradient_booster": {"model": {"gbtree_model_param": {"num_parallel_tree": "1", "num_trees": "110"}, "iteration_indptr": [0, 1, 2, 3, 4, 5, 6, 7, 8, 9, 10, 11, 12, 13, 14, 15, 16, 17, 18, 19, 20, 21, 22, 23, 24, 25, 26, 27, 28, 29, 30, 31, 32, 33, 34, 35, 36, 37, 38, 39, 40, 41, 42, 43, 44, 45, 46, 47, 48, 49, 50, 51, 52, 53, 54, 55, 56, 57, 58, 59, 60, 61, 62, 63, 64, 65, 66, 67, 68, 69, 70, 71, 72, 73, 74, 75, 76, 77, 78, 79, 80, 81, 82, 83, 84, 85, 86, 87, 88, 89, 90, 91, 92, 93, 94, 95, 96, 97, 98, 99, 100, 101, 102, 103, 104, 105, 106, 107, 108, 109, 110], "tree_info": [0, 0, 0, 0, 0, 0, 0, 0, 0, 0, 0, 0, 0, 0, 0, 0, 0, 0, 0, 0, 0, 0, 0, 0, 0, 0, 0, 0, 0, 0, 0, 0, 0, 0, 0, 0, 0, 0, 0, 0, 0, 0, 0, 0, 0, 0, 0, 0, 0, 0, 0, 0, 0, 0, 0, 0, 0, 0, 0, 0, 0, 0, 0, 0, 0, 0, 0, 0, 0, 0, 0, 0, 0, 0, 0, 0, 0, 0, 0, 0, 0, 0, 0, 0, 0, 0, 0, 0, 0, 0, 0, 0, 0, 0, 0, 0, 0, 0, 0, 0, 0, 0, 0, 0, 0, 0, 0, 0, 0, 0], "trees": [{"base_weights": [0.12204811, 0.9208326, -2.2548862, -0.6309778, 0.95023996, -1.4022329, -2.8704991, 0.31055564, -0.03301412, -0.30435705, -0.4942867, -0.7376485, -0.9171868], "categories": [], "categories_nodes": [], "categories_segments": [], "categories_sizes": [], "default_left": [0, 0, 0, 0, 0, 0, 0, 0, 0, 0, 0, 0, 0], "id": 0, "left_children": [1, 3, 5, -1, 7, 9, 11, -1, -1, -1, -1, -1, -1], "loss_changes": [2927.2085, 104.6095, 199.53467, 0.0, 103.096436, 13.983917, 9.7265625, 0.0, 0.0, 0.0, 0.0, 0.0, 0.0], "parents": [2147483647, 0, 0, 1, 1, 2, 2, 4, 4, 5, 5, 6, 6], "right_children": [2, 4, 6, -1, 8, 10, 12, -1, -1, -1, -1, -1, -1], "split_conditions": [399192.0, 60.0, 2711640.0, -0.6309778, 147864.0, 943260.0, 5370600.0, 0.31055564, -0.03301412, -0.30435705, -0.4942867, -0.7376485, -0.9171868], "split_indices": [3, 3, 3, 0, 3, 3, 3, 0, 0, 0, 0, 0, 0], "split_type": [0, 0, 0, 0, 0, 0, 0, 0, 0, 0, 0, 0, 0], "sum_hessian": [1539.6313, 1152.8284, 386.80298, 10.423403, 1142.4049, 163.55266, 223.25034, 1057.691, 84.71384, 65.38316, 98.1695, 74.100914, 149.14941], "tree_param": {"num_deleted": "0", "num_feature": "6", "num_nodes": "13", "size_leaf_vector": "1"}}, {"base_weights": [0.13761039, 0.85800946, -1.866828, 0.29232162, 0.0047018966, -1.0306941, -2.11665, -0.20052408, -0.39660102, -0.5522847, -0.6783852], "categories": [], "categories_nodes": [], "categories_segments": [], "categories_sizes": [], "default_left": [0, 0, 0, 0, 0, 0, 0, 0, 0, 0, 0], "id": 1, "left_children": [1, 3, 5, -1, -1, 7, 9, -1, -1, -1, -1], "loss_changes": [2154.682, 107.5918, 80.22827, 0.0, 0.0, 8.900421, 7.9121094, 0.0, 0.0, 0.0, 0.0], "parents": [2147483647, 0, 0, 1, 1, 2, 2, 5, 5, 6, 6], "right_children": [2, 4, 6, -1, -1, 8, 10, -1, -1, -1, -1], "split_conditions": [58.0, 23.0, 107.0, 0.29232162, 0.0047018966, 76.0, 231.0, -0.20052408, -0.39660102, -0.5522847, -0.6783852], "split_indices": [0, 0, 0, 0, 0, 0, 0, 0, 0, 0, 0], "split_type": [0, 0, 0, 0, 0, 0, 0, 0, 0, 0, 0], "sum_hessian": [1490.0573, 1096.5331, 393.52417, 963.2696, 133.2635, 91.70861, 301.81555, 42.343517, 49.365093, 108.57609, 193.23947], "tree_param": {"num_deleted": "0", "num_feature": "6", "num_nodes": "11", "size_leaf_vector": "1"}}, {"base_weights": [0.12932561, -0.72672576, 0.61398, -0.34776205, -0.12495039, 0.38172498, 0.2694436, 0.021832583, 0.13707538], "categories": [], "categories_nodes": [], "categories_segments": [], "categories_sizes": [], "default_left": [0, 0, 0, 0, 0, 0, 0, 0, 0], "id": 2, "left_children": [1, 3, 5, -1, -1, 7, -1, -1, -1], "loss_changes": [555.7607, 64.49419, 56.096832, 0.0, 0.0, 10.93869, 0.0, 0.0, 0.0], "parents": [2147483647, 0, 0, 1, 1, 2, 2, 5, 5], "right_children": [2, 4, 6, -1, -1, 8, -1, -1, -1], "split_conditions": [3.8461537, 1.369863, 25.0, -0.34776205, -0.12495039, 5.263158, 0.2694436, 0.021832583, 0.13707538], "split_indices": [1, 1, 1, 0, 0, 1, 0, 0, 0], "split_type": [0, 0, 0, 0, 0, 0, 0, 0, 0], "sum_hessian": [1337.465, 483.30234, 854.16266, 200.72997, 282.57236, 471.30078, 382.8619, 92.63863, 378.66214], "tree_param": {"num_deleted": "0", "num_feature": "6", "num_nodes": "9", "size_leaf_vector": "1"}}, {"base_weights": [0.10102238, 0.54534006, -0.8553926, 0.6662841, 0.008572848, -0.14615509, -1.1524063, 0.14835243, 0.2187036, -0.30521768, -0.41726848], "categories": [], "categories_nodes": [], "categories_segments": [], "categories_sizes": [], "default_left": [0, 0, 0, 0, 0, 0, 0, 0, 0, 0, 0], "id": 3, "left_children": [1, 3, 5, 7, -1, -1, 9, -1, -1, -1, -1], "loss_changes": [550.4167, 55.246094, 44.37558, 7.359894, 0.0, 0.0, 5.8846436, 0.0, 0.0, 0.0, 0.0], "parents": [2147483647, 0, 0, 1, 1, 2, 2, 3, 3, 6, 6], "right_children": [2, 4, 6, 8, -1, -1, 10, -1, -1, -1, -1], "split_conditions": [90.0, 50.0, 221.0, 7.0, 0.008572848, -0.14615509, 908.0, 0.14835243, 0.2187036, -0.30521768, -0.41726848], "split_indices": [5, 5, 5, 5, 0, 0, 5, 0, 0, 0, 0], "split_type": [0, 0, 0, 0, 0, 0, 0, 0, 0, 0, 0], "sum_hessian": [1293.1465, 883.249, 409.8975, 715.5026, 167.74638, 184.19304, 225.70445, 193.76729, 521.73535, 147.479, 78.22545], "tree_param": {"num_deleted": "0", "num_feature": "6", "num_nodes": "11", "size_leaf_vector": "1"}}, {"base_weights": [0.041079972, -0.7952713, 0.86272794, -0.22055128, -1.0665101, 0.8980047, 0.11649588, -0.3649558, -0.1533983, 0.09390166, 0.27576247], "categories": [], "categories_nodes": [], "categories_segments": [], "categories_sizes": [], "default_left": [0, 0, 0, 0, 0, 0, 0, 0, 0, 0, 0], "id": 4, "left_children": [1, 3, 5, -1, 7, 9, -1, -1, -1, -1, -1], "loss_changes": [817.36957, 8.825287, 9.692139, 0.0, 8.097923, 6.629822, 0.0, 0.0, 0.0, 0.0, 0.0], "parents": [2147483647, 0, 0, 1, 1, 2, 2, 4, 4, 5, 5], "right_children": [2, 4, 6, -1, 8, 10, -1, -1, -1, -1, -1], "split_conditions": [10.06, 0.09, 99.17, -0.22055128, 5.5, 15.32, 0.11649588, -0.3649558, -0.1533983, 0.09390166, 0.27576247], "split_indices": [4, 4, 4, 0, 4, 4, 0, 0, 0, 0, 0], "split_type": [0, 0, 0, 0, 0, 0, 0, 0, 0, 0, 0], "sum_hessian": [1187.4454, 588.47345, 598.972, 484.7699, 103.70354, 556.6843, 42.28768, 80.70578, 22.997757, 20.02275, 536.66156], "tree_param": {"num_deleted": "0", "num_feature": "6", "num_nodes": "11", "size_leaf_vector": "1"}}, {"base_weights": [0.10855036, 0.5738946, -0.77710766, 0.18829943, 0.017328946, -0.14027564, -0.28581655], "categories": [], "categories_nodes": [], "categories_segments": [], "categories_sizes": [], "default_left": [0, 0, 0, 0, 0, 0, 0], "id": 5, "left_children": [1, 3, 5, -1, -1, -1, -1], "loss_changes": [457.98743, 20.177399, 20.363083, 0.0, 0.0, 0.0, 0.0], "parents": [2147483647, 0, 0, 1, 1, 2, 2], "right_children": [2, 4, 6, -1, -1, -1, -1], "split_conditions": [50.0, 30.0, 121.0, 0.18829943, 0.017328946, -0.14027564, -0.28581655], "split_indices": [0, 0, 0, 0, 0, 0, 0], "split_type": [0, 0, 0, 0, 0, 0, 0], "sum_hessian": [1109.1714, 727.35504, 381.81635, 658.53345, 68.82157, 139.53922, 242.27711], "tree_param": {"num_deleted": "0", "num_feature": "6", "num_nodes": "7", "size_leaf_vector": "1"}}, {"base_weights": [0.06268019, 0.25056913, -0.48477954, -0.094309136, 0.27518827, -0.09955473, -0.2798784, 0.10876645, 0.028189538], "categories": [], "categories_nodes": [], "categories_segments": [], "categories_sizes": [], "default_left": [0, 0, 0, 0, 0, 0, 0, 0, 0], "id": 6, "left_children": [1, 3, 5, -1, 7, -1, -1, -1, -1], "loss_changes": [104.56343, 10.609249, 17.494316, 0.0, 11.453075, 0.0, 0.0, 0.0, 0.0], "parents": [2147483647, 0, 0, 1, 1, 2, 2, 4, 4], "right_children": [2, 4, 6, -1, 8, -1, -1, -1, -1], "split_conditions": [135.0, 1.0, 694.0, -0.094309136, 52.0, -0.09955473, -0.2798784, 0.10876645, 0.028189538], "split_indices": [5, 5, 5, 0, 5, 0, 0, 0, 0], "split_type": [0, 0, 0, 0, 0, 0, 0, 0, 0], "sum_hessian": [1014.3638, 755.58746, 258.77634, 31.061167, 724.5263, 194.23444, 64.54191, 488.1781, 236.34818], "tree_param": {"num_deleted": "0", "num_feature": "6", "num_nodes": "9", "size_leaf_vector": "1"}}, {"base_weights": [0.037196495, -0.22982736, 0.6789466, 0.28962186, -0.37593514, 0.023886925, -0.19545805], "categories": [], "categories_nodes": [], "categories_segments": [], "categories_sizes": [], "default_left": [0, 0, 0, 0, 0, 0, 0], "id": 7, "left_children": [1, -1, 3, -1, 5, -1, -1], "loss_changes": [489.95837, 0.0, 160.00818, 0.0, 14.307444, 0.0, 0.0], "parents": [2147483647, 0, 0, 2, 2, 4, 4], "right_children": [2, -1, 4, -1, 6, -1, -1], "split_conditions": [48.0, -0.22982736, 575292.0, 0.28962186, 2466048.0, 0.023886925, -0.19545805], "split_indices": [2, 0, 2, 0, 2, 0, 0], "split_type": [0, 0, 0, 0, 0, 0, 0], "sum_hessian": [948.42554, 421.11554, 527.31, 414.7633, 112.5467, 42.690155, 69.856544], "tree_param": {"num_deleted": "0", "num_feature": "6", "num_nodes": "7", "size_leaf_vector": "1"}}, {"base_weights": [0.06627297, 0.39820817, -0.40827617, 0.46370113, 0.035064083, -0.081139565, -0.21582453, 0.07503488, 0.15583675], "categories": [], "categories_nodes": [], "categories_segments": [], "categories_sizes": [], "default_left": [0, 0, 0, 0, 0, 0, 0, 0, 0], "id": 8, "left_children": [1, 3, 5, 7, -1, -1, -1, -1, -1], "loss_changes": [140.88765, 9.6408, 15.592983, 4.948822, 0.0, 0.0, 0.0, 0.0, 0.0], "parents": [2147483647, 0, 0, 1, 1, 2, 2, 3, 3], "right_children": [2, 4, 6, 8, -1, -1, -1, -1, -1], "split_conditions": [41.0, 17.0, 231.0, 1.0, 0.035064083, -0.081139565, -0.21582453, 0.07503488, 0.15583675], "split_indices": [0, 0, 0, 0, 0, 0, 0, 0, 0], "split_type": [0, 0, 0, 0, 0, 0, 0, 0, 0], "sum_hessian": [892.3815, 525.18713, 367.19434, 425.486, 99.70113, 255.77475, 111.41959, 89.213394, 336.2726], "tree_param": {"num_deleted": "0", "num_feature": "6", "num_nodes": "9", "size_leaf_vector": "1"}}, {"base_weights": [-0.0011588688, -0.26678506, 0.2505456, -0.3165982, 0.008200415, -0.05595785, -0.15230624], "categories": [], "categories_nodes": [], "categories_segments": [], "categories_sizes": [], "default_left": [0, 0, 0, 0, 0, 0, 0], "id": 9, "left_children": [1, 3, -1, 5, -1, -1, -1], "loss_changes": [181.60971, 9.098942, 0.0, 13.095306, 0.0, 0.0, 0.0], "parents": [2147483647, 0, 0, 1, 1, 3, 3], "right_children": [2, 4, -1, 6, -1, -1, -1], "split_conditions": [50.0, 16.666666, 0.2505456, 3.8461537, 0.008200415, -0.05595785, -0.15230624], "split_indices": [1, 1, 0, 1, 0, 0, 0], "split_type": [0, 0, 0, 0, 0, 0, 0], "sum_hessian": [815.521, 619.45337, 196.06766, 529.6701, 89.78322, 316.3267, 213.34343], "tree_param": {"num_deleted": "0", "num_feature": "6", "num_nodes": "7", "size_leaf_vector": "1"}}, {"base_weights": [-0.013481564, 0.078536324, -0.41403604, -0.087576754, -0.23874035], "categories": [], "categories_nodes": [], "categories_segments": [], "categories_sizes": [], "default_left": [0, 0, 0, 0, 0], "id": 10, "left_children": [1, -1, 3, -1, -1], "loss_changes": [88.61328, 0.0, 15.027405, 0.0, 0.0], "parents": [2147483647, 0, 0, 2, 2], "right_children": [2, -1, 4, -1, -1], "split_conditions": [44.0, 0.078536324, 280.0, -0.087576754, -0.23874035], "split_indices": [0, 0, 0, 0, 0], "split_type": [0, 0, 0, 0, 0], "sum_hessian": [801.69006, 475.3596, 326.33047, 248.58224, 77.748245], "tree_param": {"num_deleted": "0", "num_feature": "6", "num_nodes": "5", "size_leaf_vector": "1"}}, {"base_weights": [0.008885903, 0.40000042, -0.47836018, -0.8341557, 0.15008308, -0.09242961, -0.18011469], "categories": [], "categories_nodes": [], "categories_segments": [], "categories_sizes": [], "default_left": [0, 0, 0, 0, 0, 0, 0], "id": 11, "left_children": [1, 3, 5, -1, -1, -1, -1], "loss_changes": [144.39413, 135.43802, 6.824646, 0.0, 0.0, 0.0, 0.0], "parents": [2147483647, 0, 0, 1, 1, 2, 2], "right_children": [2, 4, 6, -1, -1, -1, -1], "split_conditions": [157656.0, 72.0, 1826856.0, -0.8341557, 0.15008308, -0.09242961, -0.18011469], "split_indices": [3, 3, 3, 0, 0, 0, 0], "split_type": [0, 0, 0, 0, 0, 0, 0], "sum_hessian": [755.696, 419.30063, 336.39536, 11.998841, 407.3018, 141.90938, 194.48596], "tree_param": {"num_deleted": "0", "num_feature": "6", "num_nodes": "7", "size_leaf_vector": "1"}}, {"base_weights": [0.020013219, -0.09531202, 0.10476763, 0.04076329, -0.17982472], "categories": [], "categories_nodes": [], "categories_segments": [], "categories_sizes": [], "default_left": [0, 0, 0, 0, 0], "id": 12, "left_children": [1, -1, 3, -1, -1], "loss_changes": [21.000393, 0.0, 12.926002, 0.0, 0.0], "parents": [2147483647, 0, 0, 2, 2], "right_children": [2, -1, 4, -1, -1], "split_conditions": [16.0, -0.09531202, 908.0, 0.04076329, -0.17982472], "split_indices": [5, 0, 5, 0, 0], "split_type": [0, 0, 0, 0, 0], "sum_hessian": [731.52, 146.202, 585.31805, 561.32635, 23.991701], "tree_param": {"num_deleted": "0", "num_feature": "6", "num_nodes": "5", "size_leaf_vector": "1"}}, {"base_weights": [-0.017165357, -0.10367813, 0.033510864, 0.016826736, -0.2065911], "categories": [], "categories_nodes": [], "categories_segments": [], "categories_sizes": [], "default_left": [0, 0, 0, 0, 0], "id": 13, "left_children": [1, -1, 3, -1, -1], "loss_changes": [12.185475, 0.0, 10.3854475, 0.0, 0.0], "parents": [2147483647, 0, 0, 2, 2], "right_children": [2, -1, 4, -1, -1], "split_conditions": [8.0, -0.10367813, 1020.0, 0.016826736, -0.2065911], "split_indices": [5, 0, 5, 0, 0], "split_type": [0, 0, 0, 0, 0], "sum_hessian": [730.44995, 96.86384, 633.5861, 615.2717, 18.3144], "tree_param": {"num_deleted": "0", "num_feature": "6", "num_nodes": "5", "size_leaf_vector": "1"}}, {"base_weights": [0.05322914, 0.36669302, -0.08697733, -0.407438, 0.12911424], "categories": [], "categories_nodes": [], "categories_segments": [], "categories_sizes": [], "default_left": [0, 0, 0, 0, 0], "id": 14, "left_children": [1, 3, -1, -1, -1], "loss_changes": [79.26712, 42.88139, 0.0, 0.0, 0.0], "parents": [2147483647, 0, 0, 1, 1], "right_children": [2, 4, -1, -1, -1], "split_conditions": [138888.0, 60.0, -0.08697733, -0.407438, 0.12911424], "split_indices": [3, 3, 0, 0, 0], "split_type": [0, 0, 0, 0, 0], "sum_hessian": [734.9261, 384.04245, 350.88364, 12.951787, 371.09067], "tree_param": {"num_deleted": "0", "num_feature": "6", "num_nodes": "5", "size_leaf_vector": "1"}}, {"base_weights": [-0.044473752, -0.27029368, 0.17685921, 0.023330031, -0.12108222], "categories": [], "categories_nodes": [], "categories_segments": [], "categories_sizes": [], "default_left": [0, 0, 0, 0, 0], "id": 15, "left_children": [1, 3, -1, -1, -1], "loss_changes": [98.69319, 23.6106, 0.0, 0.0, 0.0], "parents": [2147483647, 0, 0, 1, 1], "right_children": [2, 4, -1, -1, -1], "split_conditions": [33.333332, 1.9607843, 0.17685921, 0.023330031, -0.12108222], "split_indices": [1, 1, 0, 0, 0], "split_type": [0, 0, 0, 0, 0], "sum_hessian": [687.22565, 507.15918, 180.06647, 140.57008, 366.58908], "tree_param": {"num_deleted": "0", "num_feature": "6", "num_nodes": "5", "size_leaf_vector": "1"}}, {"base_weights": [0.06407429, -0.25335884, 0.80162835, 0.28762734, 0.04260821, -0.26312962, 0.053374987], "categories": [], "categories_nodes": [], "categories_segments": [], "categories_sizes": [], "default_left": [0, 0, 0, 0, 0, 0, 0], "id": 16, "left_children": [1, -1, 3, -1, 5, -1, -1], "loss_changes": [463.5665, 0.0, 45.490097, 0.0, 8.434476, 0.0, 0.0], "parents": [2147483647, 0, 0, 2, 2, 4, 4], "right_children": [2, -1, 4, -1, 6, -1, -1], "split_conditions": [48.0, -0.25335884, 2219364.0, 0.28762734, 2566596.0, -0.26312962, 0.053374987], "split_indices": [2, 0, 2, 0, 2, 0, 0], "split_type": [0, 0, 0, 0, 0, 0, 0], "sum_hessian": [689.731, 308.9661, 380.76492, 315.24167, 65.523254, 7.700416, 57.82284], "tree_param": {"num_deleted": "0", "num_feature": "6", "num_nodes": "7", "size_leaf_vector": "1"}}, {"base_weights": [0.030663127, -0.36370713, 0.63163507, -0.08780571, -0.22049622, 0.20698403, -0.030298732], "categories": [], "categories_nodes": [], "categories_segments": [], "categories_sizes": [], "default_left": [0, 0, 0, 0, 0, 0, 0], "id": 17, "left_children": [1, 3, 5, -1, -1, -1, -1], "loss_changes": [158.731, 10.449112, 11.405319, 0.0, 0.0, 0.0, 0.0], "parents": [2147483647, 0, 0, 1, 1, 2, 2], "right_children": [2, 4, 6, -1, -1, -1, -1], "split_conditions": [10.06, 0.09, 98.8, -0.08780571, -0.22049622, 0.20698403, -0.030298732], "split_indices": [4, 4, 4, 0, 0, 0, 0], "split_type": [0, 0, 0, 0, 0, 0, 0], "sum_hessian": [667.7664, 403.4252, 264.34122, 340.1474, 63.27781, 244.9068, 19.434399], "tree_param": {"num_deleted": "0", "num_feature": "6", "num_nodes": "7", "size_leaf_vector": "1"}}, {"base_weights": [0.061965775, 0.2484908, -0.05141527, -0.23480676, 0.089271106], "categories": [], "categories_nodes": [], "categories_segments": [], "categories_sizes": [], "default_left": [0, 0, 0, 0, 0], "id": 18, "left_children": [1, 3, -1, -1, -1], "loss_changes": [27.58236, 18.050207, 0.0, 0.0, 0.0], "parents": [2147483647, 0, 0, 1, 1], "right_children": [2, 4, -1, -1, -1], "split_conditions": [259248.0, 72.0, -0.05141527, -0.23480676, 0.089271106], "split_indices": [3, 3, 0, 0, 0], "split_type": [0, 0, 0, 0, 0], "sum_hessian": [631.7257, 351.0522, 280.67352, 15.270285, 335.78192], "tree_param": {"num_deleted": "0", "num_feature": "6", "num_nodes": "5", "size_leaf_vector": "1"}}, {"base_weights": [-0.021109346, -0.14279838, 0.1097448, 0.040547185, -0.18036081], "categories": [], "categories_nodes": [], "categories_segments": [], "categories_sizes": [], "default_left": [0, 0, 0, 0, 0], "id": 19, "left_children": [1, -1, 3, -1, -1], "loss_changes": [37.23031, 0.0, 8.859474, 0.0, 0.0], "parents": [2147483647, 0, 0, 2, 2], "right_children": [2, -1, 4, -1, -1], "split_conditions": [19.0, -0.14279838, 908.0, 0.040547185, -0.18036081], "split_indices": [5, 0, 5, 0, 0], "split_type": [0, 0, 0, 0, 0], "sum_hessian": [623.5936, 138.72154, 484.8721, 468.92065, 15.951448], "tree_param": {"num_deleted": "0", "num_feature": "6", "num_nodes": "5", "size_leaf_vector": "1"}}, {"base_weights": [0.0011490531, -0.24025631, 0.18853065, 0.049281046, -0.3058924, -0.11464461, 0.008601267], "categories": [], "categories_nodes": [], "categories_segments": [], "categories_sizes": [], "default_left": [0, 0, 0, 0, 0, 0, 0], "id": 20, "left_children": [1, 3, -1, -1, 5, -1, -1], "loss_changes": [94.81227, 12.054771, 0.0, 0.0, 9.944355, 0.0, 0.0], "parents": [2147483647, 0, 0, 1, 1, 4, 4], "right_children": [2, 4, -1, -1, 6, -1, -1], "split_conditions": [33.333332, 1.1627907, 0.18853065, 0.049281046, 14.285714, -0.11464461, 0.008601267], "split_indices": [1, 1, 0, 0, 1, 0, 0], "split_type": [0, 0, 0, 0, 0, 0, 0], "sum_hessian": [624.1145, 451.12155, 172.99295, 62.768135, 388.35342, 316.1515, 72.20193], "tree_param": {"num_deleted": "0", "num_feature": "6", "num_nodes": "7", "size_leaf_vector": "1"}}, {"base_weights": [0.00562299, -0.17842689, 0.5860914, 0.22593828, 0.038655516, -0.036902916, 0.19318639], "categories": [], "categories_nodes": [], "categories_segments": [], "categories_sizes": [], "default_left": [0, 0, 0, 0, 0, 0, 0], "id": 21, "left_children": [1, -1, 3, -1, 5, -1, -1], "loss_changes": [210.6341, 0.0, 28.070023, 0.0, 7.212457, 0.0, 0.0], "parents": [2147483647, 0, 0, 2, 2, 4, 4], "right_children": [2, -1, 4, -1, 6, -1, -1], "split_conditions": [48.0, -0.17842689, 1739586.0, 0.22593828, 5858172.0, -0.036902916, 0.19318639], "split_indices": [2, 0, 2, 0, 2, 0, 0], "split_type": [0, 0, 0, 0, 0, 0, 0], "sum_hessian": [602.3996, 296.109, 306.2906, 234.39513, 71.89546, 57.369743, 14.525718], "tree_param": {"num_deleted": "0", "num_feature": "6", "num_nodes": "7", "size_leaf_vector": "1"}}, {"base_weights": [0.056361564, -0.11121557, 0.521192, 0.19976543, -0.02216084], "categories": [], "categories_nodes": [], "categories_segments": [], "categories_sizes": [], "default_left": [0, 0, 0, 0, 0], "id": 22, "left_children": [1, -1, 3, -1, -1], "loss_changes": [115.17933, 0.0, 23.96518, 0.0, 0.0], "parents": [2147483647, 0, 0, 2, 2], "right_children": [2, -1, 4, -1, -1], "split_conditions": [48.0, -0.11121557, 2626884.0, 0.19976543, -0.02216084], "split_indices": [2, 0, 2, 0, 0], "split_type": [0, 0, 0, 0, 0], "sum_hessian": [578.2173, 301.45078, 276.7665, 222.53644, 54.230072], "tree_param": {"num_deleted": "0", "num_feature": "6", "num_nodes": "5", "size_leaf_vector": "1"}}, {"base_weights": [0.030369004, -0.42635596, 0.091751195, -0.028574832, -0.34635502, 0.3180792, -0.022337811, 0.026795717, 0.13459629], "categories": [], "categories_nodes": [], "categories_segments": [], "categories_sizes": [], "default_left": [0, 0, 0, 0, 0, 0, 0, 0, 0], "id": 23, "left_children": [1, 3, 5, -1, -1, 7, -1, -1, -1], "loss_changes": [15.577162, 15.764042, 18.434034, 0.0, 0.0, 6.1554756, 0.0, 0.0, 0.0], "parents": [2147483647, 0, 0, 1, 1, 2, 2, 5, 5], "right_children": [2, 4, 6, -1, -1, 8, -1, -1, -1], "split_conditions": [1188.0, 624.0, 126900.0, -0.028574832, -0.34635502, 9828.0, -0.022337811, 0.026795717, 0.13459629], "split_indices": [3, 3, 3, 0, 0, 3, 0, 0, 0], "split_type": [0, 0, 0, 0, 0, 0, 0, 0, 0], "sum_hessian": [553.24164, 64.84028, 488.4014, 45.349796, 19.490482, 206.41437, 281.98703, 75.61873, 130.79564], "tree_param": {"num_deleted": "0", "num_feature": "6", "num_nodes": "9", "size_leaf_vector": "1"}}, {"base_weights": [-0.028280644, -0.1616699, 0.23985419, -0.03089909, -0.1461124, 0.14556268, -0.3360342, -0.035908192, -0.23128076], "categories": [], "categories_nodes": [], "categories_segments": [], "categories_sizes": [], "default_left": [0, 0, 0, 0, 0, 0, 0, 0, 0], "id": 24, "left_children": [1, 3, 5, -1, -1, -1, 7, -1, -1], "loss_changes": [19.663286, 6.956172, 25.975245, 0.0, 0.0, 0.0, 5.0983458, 0.0, 0.0], "parents": [2147483647, 0, 0, 1, 1, 2, 2, 6, 6], "right_children": [2, 4, 6, -1, -1, -1, 8, -1, -1], "split_conditions": [15.32, 0.09, 81.02, -0.03089909, -0.1461124, 0.14556268, 99.0, -0.035908192, -0.23128076], "split_indices": [4, 4, 4, 0, 0, 0, 4, 0, 0], "split_type": [0, 0, 0, 0, 0, 0, 0, 0, 0], "sum_hessian": [547.687, 366.0065, 181.68051, 311.20474, 54.80177, 127.512024, 54.168484, 37.0255, 17.142982], "tree_param": {"num_deleted": "0", "num_feature": "6", "num_nodes": "9", "size_leaf_vector": "1"}}, {"base_weights": [0.056440517, -0.09910153, 0.24017598, 0.08077437, -0.12847085], "categories": [], "categories_nodes": [], "categories_segments": [], "categories_sizes": [], "default_left": [0, 0, 0, 0, 0], "id": 25, "left_children": [1, -1, 3, -1, -1], "loss_changes": [37.686474, 0.0, 7.098093, 0.0, 0.0], "parents": [2147483647, 0, 0, 2, 2], "right_children": [2, -1, 4, -1, -1], "split_conditions": [31.0, -0.09910153, 1020.0, 0.08077437, -0.12847085], "split_indices": [5, 0, 5, 0, 0], "split_type": [0, 0, 0, 0, 0], "sum_hessian": [528.19354, 169.84895, 358.34457, 343.98065, 14.36391], "tree_param": {"num_deleted": "0", "num_feature": "6", "num_nodes": "5", "size_leaf_vector": "1"}}, {"base_weights": [0.07916914, 0.15943976, -0.01246074, -0.037493605, 0.06667574], "categories": [], "categories_nodes": [], "categories_segments": [], "categories_sizes": [], "default_left": [0, 0, 0, 0, 0], "id": 26, "left_children": [1, 3, -1, -1, -1], "loss_changes": [5.4123125, 6.017743, 0.0, 0.0, 0.0], "parents": [2147483647, 0, 0, 1, 1], "right_children": [2, 4, -1, -1, -1], "split_conditions": [595164.0, 960.0, -0.01246074, -0.037493605, 0.06667574], "split_indices": [3, 3, 0, 0, 0], "split_type": [0, 0, 0, 0, 0], "sum_hessian": [556.9169, 334.28882, 222.62804, 60.292465, 273.99634], "tree_param": {"num_deleted": "0", "num_feature": "6", "num_nodes": "5", "size_leaf_vector": "1"}}, {"base_weights": [0.03655027, -0.07712473, 0.39714596, 0.16550922, 0.045703046], "categories": [], "categories_nodes": [], "categories_segments": [], "categories_sizes": [], "default_left": [0, 0, 0, 0, 0], "id": 27, "left_children": [1, -1, 3, -1, -1], "loss_changes": [57.87295, 0.0, 9.195869, 0.0, 0.0], "parents": [2147483647, 0, 0, 2, 2], "right_children": [2, -1, 4, -1, -1], "split_conditions": [48.0, -0.07712473, 516276.0, 0.16550922, 0.045703046], "split_indices": [2, 0, 2, 0, 0], "split_type": [0, 0, 0, 0, 0], "sum_hessian": [544.6118, 300.3358, 244.27605, 148.97183, 95.304214], "tree_param": {"num_deleted": "0", "num_feature": "6", "num_nodes": "5", "size_leaf_vector": "1"}}, {"base_weights": [-0.05198866, -0.17079848, 0.05877928, -0.029172746, -0.18647793], "categories": [], "categories_nodes": [], "categories_segments": [], "categories_sizes": [], "default_left": [0, 0, 0, 0, 0], "id": 28, "left_children": [1, 3, -1, -1, -1], "loss_changes": [15.717196, 11.892975, 0.0, 0.0, 0.0], "parents": [2147483647, 0, 0, 1, 1], "right_children": [2, 4, -1, -1, -1], "split_conditions": [10.96, 0.09, 0.05877928, -0.029172746, -0.18647793], "split_indices": [4, 4, 0, 0, 0], "split_type": [0, 0, 0, 0, 0], "sum_hessian": [531.45905, 359.49185, 171.96721, 310.10745, 49.38441], "tree_param": {"num_deleted": "0", "num_feature": "6", "num_nodes": "5", "size_leaf_vector": "1"}}, {"base_weights": [-0.049811985, -0.014157757, -0.14201748, -0.073245116, 0.036723576, 0.06538548, -0.019608341], "categories": [], "categories_nodes": [], "categories_segments": [], "categories_sizes": [], "default_left": [0, 0, 0, 0, 0, 0, 0], "id": 29, "left_children": [1, 3, -1, -1, 5, -1, -1], "loss_changes": [7.972845, 5.7240596, 0.0, 0.0, 7.4287558, 0.0, 0.0], "parents": [2147483647, 0, 0, 1, 1, 4, 4], "right_children": [2, 4, -1, -1, 6, -1, -1], "split_conditions": [280.0, 3.0, -0.14201748, -0.073245116, 17.0, 0.06538548, -0.019608341], "split_indices": [0, 0, 0, 0, 0, 0, 0], "split_type": [0, 0, 0, 0, 0, 0, 0], "sum_hessian": [527.36273, 487.37225, 39.990463, 87.60115, 399.7711, 143.63863, 256.13248], "tree_param": {"num_deleted": "0", "num_feature": "6", "num_nodes": "7", "size_leaf_vector": "1"}}, {"base_weights": [-0.038922798, -0.36035964, 0.24214478, -0.014550137, -0.47327474, -0.17569512, -0.033388548], "categories": [], "categories_nodes": [], "categories_segments": [], "categories_sizes": [], "default_left": [0, 0, 0, 0, 0, 0, 0], "id": 30, "left_children": [1, 3, -1, -1, 5, -1, -1], "loss_changes": [142.10526, 13.308231, 0.0, 0.0, 11.236324, 0.0, 0.0], "parents": [2147483647, 0, 0, 1, 1, 4, 4], "right_children": [2, 4, -1, -1, 6, -1, -1], "split_conditions": [50.0, 2.0, 0.24214478, -0.014550137, 16.666666, -0.17569512, -0.033388548], "split_indices": [1, 1, 0, 0, 1, 0, 0], "split_type": [0, 0, 0, 0, 0, 0, 0], "sum_hessian": [520.45557, 377.5805, 142.87505, 100.74987, 276.83063, 210.77742, 66.05321], "tree_param": {"num_deleted": "0", "num_feature": "6", "num_nodes": "7", "size_leaf_vector": "1"}}, {"base_weights": [0.059658967, -0.046055704, 0.1364564, 0.099377975, 0.020180501], "categories": [], "categories_nodes": [], "categories_segments": [], "categories_sizes": [], "default_left": [0, 0, 0, 0, 0], "id": 31, "left_children": [1, -1, 3, -1, -1], "loss_changes": [8.423323, 0.0, 5.070218, 0.0, 0.0], "parents": [2147483647, 0, 0, 2, 2], "right_children": [2, -1, 4, -1, -1], "split_conditions": [9828.0, -0.046055704, 84732.0, 0.099377975, 0.020180501], "split_indices": [3, 0, 3, 0, 0], "split_type": [0, 0, 0, 0, 0], "sum_hessian": [512.2312, 135.39534, 376.83585, 97.770065, 279.06577], "tree_param": {"num_deleted": "0", "num_feature": "6", "num_nodes": "5", "size_leaf_vector": "1"}}, {"base_weights": [-0.076029085], "categories": [], "categories_nodes": [], "categories_segments": [], "categories_sizes": [], "default_left": [0], "id": 32, "left_children": [-1], "loss_changes": [0.0], "parents": [2147483647], "right_children": [-1], "split_conditions": [-0.022808727], "split_indices": [0], "split_type": [0], "sum_hessian": [493.3212], "tree_param": {"num_deleted": "0", "num_feature": "6", "num_nodes": "1", "size_leaf_vector": "1"}}, {"base_weights": [0.012933846, -0.060399707, 0.19407979], "categories": [], "categories_nodes": [], "categories_segments": [], "categories_sizes": [], "default_left": [0, 0, 0], "id": 33, "left_children": [1, -1, -1], "loss_changes": [70.97105, 0.0, 0.0], "parents": [2147483647, 0, 0], "right_children": [2, -1, -1], "split_conditions": [50.0, -0.060399707, 0.19407979], "split_indices": [1, 0, 0], "split_type": [0, 0, 0], "sum_hessian": [520.48444, 389.52353, 130.9609], "tree_param": {"num_deleted": "0", "num_feature": "6", "num_nodes": "3", "size_leaf_vector": "1"}}, {"base_weights": [0.009760911, -0.21509278, 0.13289602, -0.0018821222, -0.088294424], "categories": [], "categories_nodes": [], "categories_segments": [], "categories_sizes": [], "default_left": [0, 0, 0, 0, 0], "id": 34, "left_children": [1, 3, -1, -1, -1], "loss_changes": [49.010624, 5.4779673, 0.0, 0.0, 0.0], "parents": [2147483647, 0, 0, 1, 1], "right_children": [2, 4, -1, -1, -1], "split_conditions": [20.0, 1.8518518, 0.13289602, -0.0018821222, -0.088294424], "split_indices": [1, 1, 0, 0, 0], "split_type": [0, 0, 0, 0, 0], "sum_hessian": [501.14685, 330.24564, 170.9012, 91.12662, 239.11902], "tree_param": {"num_deleted": "0", "num_feature": "6", "num_nodes": "5", "size_leaf_vector": "1"}}, {"base_weights": [-0.0018846148, -0.05786333, 0.29625055, 0.11751968, -0.23065065], "categories": [], "categories_nodes": [], "categories_segments": [], "categories_sizes": [], "default_left": [0, 0, 0, 0, 0], "id": 35, "left_children": [1, -1, 3, -1, -1], "loss_changes": [28.178959, 0.0, 19.95284, 0.0, 0.0], "parents": [2147483647, 0, 0, 2, 2], "right_children": [2, -1, 4, -1, -1], "split_conditions": [5.5, -0.05786333, 98.8, 0.11751968, -0.23065065], "split_indices": [4, 0, 4, 0, 0], "split_type": [0, 0, 0, 0, 0], "sum_hessian": [492.86972, 300.63083, 192.23888, 177.00328, 15.235595], "tree_param": {"num_deleted": "0", "num_feature": "6", "num_nodes": "5", "size_leaf_vector": "1"}}, {"base_weights": [0.042327244, -0.2612983, 0.14610721, 0.15959343, -0.26208422, 0.022424066, 0.099317625], "categories": [], "categories_nodes": [], "categories_segments": [], "categories_sizes": [], "default_left": [0, 0, 0, 0, 0, 0, 0], "id": 36, "left_children": [1, -1, 3, 5, -1, -1, -1], "loss_changes": [45.16087, 0.0, 6.0183992, 6.12566, 0.0, 0.0, 0.0], "parents": [2147483647, 0, 0, 2, 2, 3, 3], "right_children": [2, -1, 4, 6, -1, -1, -1], "split_conditions": [6.0, -0.2612983, 2137.0, 97.0, -0.26208422, 0.022424066, 0.099317625], "split_indices": [5, 0, 5, 5, 0, 0, 0], "split_type": [0, 0, 0, 0, 0, 0, 0], "sum_hessian": [474.1159, 47.62211, 426.49377, 421.75934, 4.7344465, 283.10553, 138.6538], "tree_param": {"num_deleted": "0", "num_feature": "6", "num_nodes": "7", "size_leaf_vector": "1"}}, {"base_weights": [0.011152554, -0.124323316, 0.4656655, 0.17433357, 0.022133397], "categories": [], "categories_nodes": [], "categories_segments": [], "categories_sizes": [], "default_left": [0, 0, 0, 0, 0], "id": 37, "left_children": [1, -1, 3, -1, -1], "loss_changes": [95.33532, 0.0, 10.739342, 0.0, 0.0], "parents": [2147483647, 0, 0, 2, 2], "right_children": [2, -1, 4, -1, -1], "split_conditions": [48.0, -0.124323316, 2626884.0, 0.17433357, 0.022133397], "split_indices": [2, 0, 2, 0, 0], "split_type": [0, 0, 0, 0, 0], "sum_hessian": [490.8845, 253.56142, 237.32307, 182.94601, 54.37706], "tree_param": {"num_deleted": "0", "num_feature": "6", "num_nodes": "5", "size_leaf_vector": "1"}}, {"base_weights": [0.05680201, -0.055450834, 0.33710477, 0.15348336, 0.019056134], "categories": [], "categories_nodes": [], "categories_segments": [], "categories_sizes": [], "default_left": [0, 0, 0, 0, 0], "id": 38, "left_children": [1, -1, 3, -1, -1], "loss_changes": [32.443443, 0.0, 10.551264, 0.0, 0.0], "parents": [2147483647, 0, 0, 2, 2], "right_children": [2, -1, 4, -1, -1], "split_conditions": [48.0, -0.055450834, 575292.0, 0.15348336, 0.019056134], "split_indices": [2, 0, 2, 0, 0], "split_type": [0, 0, 0, 0, 0], "sum_hessian": [477.0785, 256.3928, 220.6857, 134.2097, 86.476], "tree_param": {"num_deleted": "0", "num_feature": "6", "num_nodes": "5", "size_leaf_vector": "1"}}, {"base_weights": [-0.06156451, -0.11016196, 0.001238975], "categories": [], "categories_nodes": [], "categories_segments": [], "categories_sizes": [], "default_left": [0, 0, 0], "id": 39, "left_children": [1, -1, -1], "loss_changes": [9.570648, 0.0, 0.0], "parents": [2147483647, 0, 0], "right_children": [2, -1, -1], "split_conditions": [2712.0, -0.11016196, 0.001238975], "split_indices": [3, 0, 0], "split_type": [0, 0, 0], "sum_hessian": [475.5747, 83.32362, 392.25107], "tree_param": {"num_deleted": "0", "num_feature": "6", "num_nodes": "3", "size_leaf_vector": "1"}}, {"base_weights": [0.04266461, -0.120897524, 0.11214272, 0.12821013, -0.21454325, -0.016396176, 0.061872136], "categories": [], "categories_nodes": [], "categories_segments": [], "categories_sizes": [], "default_left": [0, 0, 0, 0, 0, 0, 0], "id": 40, "left_children": [1, -1, 3, 5, -1, -1, -1], "loss_changes": [14.840245, 0.0, 5.596861, 5.8204174, 0.0, 0.0, 0.0], "parents": [2147483647, 0, 0, 2, 2, 3, 3], "right_children": [2, -1, 4, 6, -1, -1, -1], "split_conditions": [8.0, -0.120897524, 1509.0, 38.0, -0.21454325, -0.016396176, 0.061872136], "split_indices": [5, 0, 5, 5, 0, 0, 0], "split_type": [0, 0, 0, 0, 0, 0, 0], "sum_hessian": [476.8245, 63.66367, 413.16083, 406.11832, 7.042527, 121.554634, 284.5637], "tree_param": {"num_deleted": "0", "num_feature": "6", "num_nodes": "7", "size_leaf_vector": "1"}}, {"base_weights": [-0.042634238, -0.12296362, 0.041312322, -0.025317175, 0.14530271, 0.07313359, -0.02993177], "categories": [], "categories_nodes": [], "categories_segments": [], "categories_sizes": [], "default_left": [0, 0, 0, 0, 0, 0, 0], "id": 41, "left_children": [1, -1, 3, -1, 5, -1, -1], "loss_changes": [14.894404, 0.0, 5.158709, 0.0, 5.2330956, 0.0, 0.0], "parents": [2147483647, 0, 0, 2, 2, 4, 4], "right_children": [2, -1, 4, -1, 6, -1, -1], "split_conditions": [12.0, -0.12296362, 59.0, -0.025317175, 210.0, 0.07313359, -0.02993177], "split_indices": [5, 0, 5, 0, 5, 0, 0], "split_type": [0, 0, 0, 0, 0, 0, 0], "sum_hessian": [481.5818, 88.87854, 392.70325, 177.87617, 214.82707, 153.25256, 61.57451], "tree_param": {"num_deleted": "0", "num_feature": "6", "num_nodes": "7", "size_leaf_vector": "1"}}, {"base_weights": [-0.0109237945], "categories": [], "categories_nodes": [], "categories_segments": [], "categories_sizes": [], "default_left": [0], "id": 42, "left_children": [-1], "loss_changes": [0.0], "parents": [2147483647], "right_children": [-1], "split_conditions": [-0.0032771386], "split_indices": [0], "split_type": [0], "sum_hessian": [482.6155], "tree_param": {"num_deleted": "0", "num_feature": "6", "num_nodes": "1", "size_leaf_vector": "1"}}, {"base_weights": [0.022777576], "categories": [], "categories_nodes": [], "categories_segments": [], "categories_sizes": [], "default_left": [0], "id": 43, "left_children": [-1], "loss_changes": [0.0], "parents": [2147483647], "right_children": [-1], "split_conditions": [0.006833273], "split_indices": [0], "split_type": [0], "sum_hessian": [490.41733], "tree_param": {"num_deleted": "0", "num_feature": "6", "num_nodes": "1", "size_leaf_vector": "1"}}, {"base_weights": [0.06975891, 0.07648693, -0.030545881], "categories": [], "categories_nodes": [], "categories_segments": [], "categories_sizes": [], "default_left": [0, 0, 0], "id": 44, "left_children": [1, -1, -1], "loss_changes": [15.429174, 0.0, 0.0], "parents": [2147483647, 0, 0], "right_children": [2, -1, -1], "split_conditions": [17.0, 0.07648693, -0.030545881], "split_indices": [0, 0, 0], "split_type": [0, 0, 0], "sum_hessian": [483.745, 232.40593, 251.33908], "tree_param": {"num_deleted": "0", "num_feature": "6", "num_nodes": "3", "size_leaf_vector": "1"}}, {"base_weights": [-0.048675664, -0.1977657, 0.0059404066, -0.04027868, -0.22636177], "categories": [], "categories_nodes": [], "categories_segments": [], "categories_sizes": [], "default_left": [0, 0, 0, 0, 0], "id": 45, "left_children": [1, 3, -1, -1, -1], "loss_changes": [4.9387665, 5.280991, 0.0, 0.0, 0.0], "parents": [2147483647, 0, 0, 1, 1], "right_children": [2, 4, -1, -1, -1], "split_conditions": [14736.0, 10536.0, 0.0059404066, -0.04027868, -0.22636177], "split_indices": [3, 3, 0, 0, 0], "split_type": [0, 0, 0, 0, 0], "sum_hessian": [482.371, 151.22713, 331.14386, 136.8587, 14.368429], "tree_param": {"num_deleted": "0", "num_feature": "6", "num_nodes": "5", "size_leaf_vector": "1"}}, {"base_weights": [0.008844762, -0.09684629, 0.17460248], "categories": [], "categories_nodes": [], "categories_segments": [], "categories_sizes": [], "default_left": [0, 0, 0], "id": 46, "left_children": [1, -1, -1], "loss_changes": [90.658356, 0.0, 0.0], "parents": [2147483647, 0, 0], "right_children": [2, -1, -1], "split_conditions": [20.0, -0.09684629, 0.17460248], "split_indices": [1, 0, 0], "split_type": [0, 0, 0], "sum_hessian": [474.9132, 301.11014, 173.80307], "tree_param": {"num_deleted": "0", "num_feature": "6", "num_nodes": "3", "size_leaf_vector": "1"}}, {"base_weights": [0.054587774, 0.056502227, -0.065994434, -0.06987392, 0.024994472], "categories": [], "categories_nodes": [], "categories_segments": [], "categories_sizes": [], "default_left": [0, 0, 0, 0, 0], "id": 47, "left_children": [1, -1, 3, -1, -1], "loss_changes": [7.536646, 0.0, 6.152395, 0.0, 0.0], "parents": [2147483647, 0, 0, 2, 2], "right_children": [2, -1, 4, -1, -1], "split_conditions": [17.0, 0.056502227, 70.0, -0.06987392, 0.024994472], "split_indices": [0, 0, 0, 0, 0], "split_type": [0, 0, 0, 0, 0], "sum_hessian": [465.52463, 220.44228, 245.08235, 115.45304, 129.62932], "tree_param": {"num_deleted": "0", "num_feature": "6", "num_nodes": "5", "size_leaf_vector": "1"}}, {"base_weights": [-0.052534275, -0.04224528, 0.10320497, 0.063228644, -0.12094213], "categories": [], "categories_nodes": [], "categories_segments": [], "categories_sizes": [], "default_left": [0, 0, 0, 0, 0], "id": 48, "left_children": [1, -1, 3, -1, -1], "loss_changes": [6.304129, 0.0, 9.129632, 0.0, 0.0], "parents": [2147483647, 0, 0, 2, 2], "right_children": [2, -1, 4, -1, -1], "split_conditions": [7.0, -0.04224528, 91.26, 0.063228644, -0.12094213], "split_indices": [4, 0, 4, 0, 0], "split_type": [0, 0, 0, 0, 0], "sum_hessian": [456.4525, 291.3767, 165.0758, 136.63564, 28.440182], "tree_param": {"num_deleted": "0", "num_feature": "6", "num_nodes": "5", "size_leaf_vector": "1"}}, {"base_weights": [0.044368356, -0.18217693, 0.03091429], "categories": [], "categories_nodes": [], "categories_segments": [], "categories_sizes": [], "default_left": [0, 0, 0], "id": 49, "left_children": [1, -1, -1], "loss_changes": [17.082714, 0.0, 0.0], "parents": [2147483647, 0, 0], "right_children": [2, -1, -1], "split_conditions": [4.0, -0.18217693, 0.03091429], "split_indices": [5, 0, 0], "split_type": [0, 0, 0], "sum_hessian": [444.1238, 35.917416, 408.2064], "tree_param": {"num_deleted": "0", "num_feature": "6", "num_nodes": "3", "size_leaf_vector": "1"}}, {"base_weights": [0.03359757, -0.2573341, 0.4365239, -0.06588665, -0.30170605, 0.08007881, 0.22333916], "categories": [], "categories_nodes": [], "categories_segments": [], "categories_sizes": [], "default_left": [0, 0, 0, 0, 0, 0, 0], "id": 50, "left_children": [1, 3, 5, -1, -1, -1, -1], "loss_changes": [53.88041, 7.3139515, 9.864635, 0.0, 0.0, 0.0, 0.0], "parents": [2147483647, 0, 0, 1, 1, 2, 2], "right_children": [2, 4, 6, -1, -1, -1, -1], "split_conditions": [14.285714, 12.5, 100.0, -0.06588665, -0.30170605, 0.08007881, 0.22333916], "split_indices": [1, 1, 1, 0, 0, 0, 0], "split_type": [0, 0, 0, 0, 0, 0, 0], "sum_hessian": [457.67792, 265.98538, 191.69254, 254.45596, 11.529405, 124.81748, 66.87506], "tree_param": {"num_deleted": "0", "num_feature": "6", "num_nodes": "7", "size_leaf_vector": "1"}}, {"base_weights": [-0.021121146], "categories": [], "categories_nodes": [], "categories_segments": [], "categories_sizes": [], "default_left": [0], "id": 51, "left_children": [-1], "loss_changes": [0.0], "parents": [2147483647], "right_children": [-1], "split_conditions": [-0.006336344], "split_indices": [0], "split_type": [0], "sum_hessian": [439.626], "tree_param": {"num_deleted": "0", "num_feature": "6", "num_nodes": "1", "size_leaf_vector": "1"}}, {"base_weights": [-0.035235148, -0.19688843, -0.0010821224], "categories": [], "categories_nodes": [], "categories_segments": [], "categories_sizes": [], "default_left": [0, 0, 0], "id": 52, "left_children": [1, -1, -1], "loss_changes": [9.005578, 0.0, 0.0], "parents": [2147483647, 0, 0], "right_children": [2, -1, -1], "split_conditions": [228.0, -0.19688843, -0.0010821224], "split_indices": [3, 0, 0], "split_type": [0, 0, 0], "sum_hessian": [457.58484, 21.216673, 436.36816], "tree_param": {"num_deleted": "0", "num_feature": "6", "num_nodes": "3", "size_leaf_vector": "1"}}, {"base_weights": [0.03342227], "categories": [], "categories_nodes": [], "categories_segments": [], "categories_sizes": [], "default_left": [0], "id": 53, "left_children": [-1], "loss_changes": [0.0], "parents": [2147483647], "right_children": [-1], "split_conditions": [0.010026681], "split_indices": [0], "split_type": [0], "sum_hessian": [444.22256], "tree_param": {"num_deleted": "0", "num_feature": "6", "num_nodes": "1", "size_leaf_vector": "1"}}, {"base_weights": [0.019735588, -0.021935124, 0.19722255, 0.07852055, -0.14643575], "categories": [], "categories_nodes": [], "categories_segments": [], "categories_sizes": [], "default_left": [0, 0, 0, 0, 0], "id": 54, "left_children": [1, -1, 3, -1, -1], "loss_changes": [7.4024243, 0.0, 6.9474525, 0.0, 0.0], "parents": [2147483647, 0, 0, 2, 2], "right_children": [2, -1, 4, -1, -1], "split_conditions": [20.13, -0.021935124, 99.69, 0.07852055, -0.14643575], "split_indices": [4, 0, 4, 0, 0], "split_type": [0, 0, 0, 0, 0], "sum_hessian": [447.29745, 294.05173, 153.24573, 140.62637, 12.619354], "tree_param": {"num_deleted": "0", "num_feature": "6", "num_nodes": "5", "size_leaf_vector": "1"}}, {"base_weights": [-0.017410478, -0.07990751, 0.2391718, 0.14486681, 0.012696954], "categories": [], "categories_nodes": [], "categories_segments": [], "categories_sizes": [], "default_left": [0, 0, 0, 0, 0], "id": 55, "left_children": [1, -1, 3, -1, -1], "loss_changes": [29.352442, 0.0, 10.837771, 0.0, 0.0], "parents": [2147483647, 0, 0, 2, 2], "right_children": [2, -1, 4, -1, -1], "split_conditions": [48.0, -0.07990751, 93594.0, 0.14486681, 0.012696954], "split_indices": [2, 0, 2, 0, 0], "split_type": [0, 0, 0, 0, 0], "sum_hessian": [457.52765, 232.19923, 225.3284, 100.02935, 125.29906], "tree_param": {"num_deleted": "0", "num_feature": "6", "num_nodes": "5", "size_leaf_vector": "1"}}, {"base_weights": [-0.007576165, -0.25521755, 0.5250636, 0.012475588, -0.09454539, 0.09429563, 0.23735334], "categories": [], "categories_nodes": [], "categories_segments": [], "categories_sizes": [], "default_left": [0, 0, 0, 0, 0, 0, 0], "id": 56, "left_children": [1, 3, 5, -1, -1, -1, -1], "loss_changes": [57.5822, 5.3136845, 7.5217133, 0.0, 0.0, 0.0, 0.0], "parents": [2147483647, 0, 0, 1, 1, 2, 2], "right_children": [2, 4, 6, -1, -1, -1, -1], "split_conditions": [25.0, 1.1904762, 100.0, 0.012475588, -0.09454539, 0.09429563, 0.23735334], "split_indices": [1, 1, 1, 0, 0, 0, 0], "split_type": [0, 0, 0, 0, 0, 0, 0], "sum_hessian": [434.53152, 296.9778, 137.55371, 49.94535, 247.03246, 77.97991, 59.573795], "tree_param": {"num_deleted": "0", "num_feature": "6", "num_nodes": "7", "size_leaf_vector": "1"}}, {"base_weights": [0.042736765], "categories": [], "categories_nodes": [], "categories_segments": [], "categories_sizes": [], "default_left": [0], "id": 57, "left_children": [-1], "loss_changes": [0.0], "parents": [2147483647], "right_children": [-1], "split_conditions": [0.01282103], "split_indices": [0], "split_type": [0], "sum_hessian": [426.33145], "tree_param": {"num_deleted": "0", "num_feature": "6", "num_nodes": "1", "size_leaf_vector": "1"}}, {"base_weights": [-0.047760993], "categories": [], "categories_nodes": [], "categories_segments": [], "categories_sizes": [], "default_left": [0], "id": 58, "left_children": [-1], "loss_changes": [0.0], "parents": [2147483647], "right_children": [-1], "split_conditions": [-0.014328298], "split_indices": [0], "split_type": [0], "sum_hessian": [420.94568], "tree_param": {"num_deleted": "0", "num_feature": "6", "num_nodes": "1", "size_leaf_vector": "1"}}, {"base_weights": [0.0015125473], "categories": [], "categories_nodes": [], "categories_segments": [], "categories_sizes": [], "default_left": [0], "id": 59, "left_children": [-1], "loss_changes": [0.0], "parents": [2147483647], "right_children": [-1], "split_conditions": [0.0004537642], "split_indices": [0], "split_type": [0], "sum_hessian": [426.16727], "tree_param": {"num_deleted": "0", "num_feature": "6", "num_nodes": "1", "size_leaf_vector": "1"}}, {"base_weights": [0.03626062, -0.24770796, 0.3199976, -0.0063857553, -0.14302476, 0.034287833, 0.152421], "categories": [], "categories_nodes": [], "categories_segments": [], "categories_sizes": [], "default_left": [0, 0, 0, 0, 0, 0, 0], "id": 60, "left_children": [1, 3, 5, -1, -1, -1, -1], "loss_changes": [33.58722, 10.798295, 8.006634, 0.0, 0.0, 0.0, 0.0], "parents": [2147483647, 0, 0, 1, 1, 2, 2], "right_children": [2, 4, 6, -1, -1, -1, -1], "split_conditions": [7.6923075, 2.5, 33.333332, -0.0063857553, -0.14302476, 0.034287833, 0.152421], "split_indices": [1, 1, 1, 0, 0, 0, 0], "split_type": [0, 0, 0, 0, 0, 0, 0], "sum_hessian": [414.87393, 207.4158, 207.45813, 104.85388, 102.56193, 99.852165, 107.60596], "tree_param": {"num_deleted": "0", "num_feature": "6", "num_nodes": "7", "size_leaf_vector": "1"}}, {"base_weights": [0.026510738, -0.020674186, 0.051710185], "categories": [], "categories_nodes": [], "categories_segments": [], "categories_sizes": [], "default_left": [0, 0, 0], "id": 61, "left_children": [1, -1, -1], "loss_changes": [5.766665, 0.0, 0.0], "parents": [2147483647, 0, 0], "right_children": [2, -1, -1], "split_conditions": [12.5, -0.020674186, 0.051710185], "split_indices": [1, 0, 0], "split_type": [0, 0, 0], "sum_hessian": [412.46863, 249.65967, 162.80898], "tree_param": {"num_deleted": "0", "num_feature": "6", "num_nodes": "3", "size_leaf_vector": "1"}}, {"base_weights": [0.045853123, -0.14090662, 0.14117844, 0.047141537, -0.25814703], "categories": [], "categories_nodes": [], "categories_segments": [], "categories_sizes": [], "default_left": [0, 0, 0, 0, 0], "id": 62, "left_children": [1, -1, 3, -1, -1], "loss_changes": [19.990362, 0.0, 5.617414, 0.0, 0.0], "parents": [2147483647, 0, 0, 2, 2], "right_children": [2, -1, 4, -1, -1], "split_conditions": [9.0, -0.14090662, 1509.0, 0.047141537, -0.25814703], "split_indices": [5, 0, 5, 0, 0], "split_type": [0, 0, 0, 0, 0], "sum_hessian": [404.4203, 62.49662, 341.92368, 337.391, 4.5326715], "tree_param": {"num_deleted": "0", "num_feature": "6", "num_nodes": "5", "size_leaf_vector": "1"}}, {"base_weights": [-0.029382527, -0.02208475, 0.10669916], "categories": [], "categories_nodes": [], "categories_segments": [], "categories_sizes": [], "default_left": [0, 0, 0], "id": 63, "left_children": [1, -1, -1], "loss_changes": [6.904035, 0.0, 0.0], "parents": [2147483647, 0, 0], "right_children": [2, -1, -1], "split_conditions": [100.0, -0.02208475, 0.10669916], "split_indices": [1, 0, 0], "split_type": [0, 0, 0], "sum_hessian": [402.8224, 362.04074, 40.78165], "tree_param": {"num_deleted": "0", "num_feature": "6", "num_nodes": "3", "size_leaf_vector": "1"}}, {"base_weights": [-0.08789304, -0.4476431, 0.05054955, -0.19271494, -0.25529602, -0.041435853, -0.26475343], "categories": [], "categories_nodes": [], "categories_segments": [], "categories_sizes": [], "default_left": [0, 0, 0, 0, 0, 0, 0], "id": 64, "left_children": [1, 3, -1, -1, 5, -1, -1], "loss_changes": [38.15511, 6.2813034, 0.0, 0.0, 6.3622622, 0.0, 0.0], "parents": [2147483647, 0, 0, 1, 1, 4, 4], "right_children": [2, 4, -1, -1, 6, -1, -1], "split_conditions": [37.0, 12.0, 0.05054955, -0.19271494, 33.0, -0.041435853, -0.26475343], "split_indices": [5, 5, 0, 0, 5, 0, 0], "split_type": [0, 0, 0, 0, 0, 0, 0], "sum_hessian": [411.8466, 171.069, 240.77759, 83.843124, 87.22588, 74.52358, 12.702302], "tree_param": {"num_deleted": "0", "num_feature": "6", "num_nodes": "7", "size_leaf_vector": "1"}}, {"base_weights": [-0.022977896, -0.088924035, 0.23570953, 0.122462586, -0.054079473], "categories": [], "categories_nodes": [], "categories_segments": [], "categories_sizes": [], "default_left": [0, 0, 0, 0, 0], "id": 65, "left_children": [1, -1, 3, -1, -1], "loss_changes": [30.276783, 0.0, 15.8596325, 0.0, 0.0], "parents": [2147483647, 0, 0, 2, 2], "right_children": [2, -1, 4, -1, -1], "split_conditions": [48.0, -0.088924035, 1972812.0, 0.122462586, -0.054079473], "split_indices": [2, 0, 2, 0, 0], "split_type": [0, 0, 0, 0, 0], "sum_hessian": [426.04736, 207.04869, 218.99867, 154.81685, 64.18182], "tree_param": {"num_deleted": "0", "num_feature": "6", "num_nodes": "5", "size_leaf_vector": "1"}}, {"base_weights": [0.013134915, -0.07703948, 0.26379526, 0.13772184, 0.03940716], "categories": [], "categories_nodes": [], "categories_segments": [], "categories_sizes": [], "default_left": [0, 0, 0, 0, 0], "id": 66, "left_children": [1, -1, 3, -1, -1], "loss_changes": [28.25855, 0.0, 5.5395803, 0.0, 0.0], "parents": [2147483647, 0, 0, 2, 2], "right_children": [2, -1, 4, -1, -1], "split_conditions": [48.0, -0.07703948, 50760.0, 0.13772184, 0.03940716], "split_indices": [2, 0, 2, 0, 0], "split_type": [0, 0, 0, 0, 0], "sum_hessian": [415.6445, 200.1167, 215.5278, 86.10348, 129.42432], "tree_param": {"num_deleted": "0", "num_feature": "6", "num_nodes": "5", "size_leaf_vector": "1"}}, {"base_weights": [0.027266035, -0.06013395, 0.19163826, 0.068912, -0.15536265], "categories": [], "categories_nodes": [], "categories_segments": [], "categories_sizes": [], "default_left": [0, 0, 0, 0, 0], "id": 67, "left_children": [1, -1, 3, -1, -1], "loss_changes": [14.716124, 0.0, 6.2841873, 0.0, 0.0], "parents": [2147483647, 0, 0, 2, 2], "right_children": [2, -1, 4, -1, -1], "split_conditions": [36.0, -0.06013395, 908.0, 0.068912, -0.15536265], "split_indices": [5, 0, 5, 0, 0], "split_type": [0, 0, 0, 0, 0], "sum_hessian": [391.14163, 163.88484, 227.25679, 216.32623, 10.930566], "tree_param": {"num_deleted": "0", "num_feature": "6", "num_nodes": "5", "size_leaf_vector": "1"}}, {"base_weights": [0.041109953, -0.19072719, 0.28581157, -0.050560214, -0.42841557, 0.246746, 0.43509173, 0.08644976, -0.21308143], "categories": [], "categories_nodes": [], "categories_segments": [], "categories_sizes": [], "default_left": [0, 0, 0, 0, 0, 0, 0, 0, 0], "id": 68, "left_children": [1, 3, 5, -1, -1, 7, -1, -1, -1], "loss_changes": [23.107029, 5.5055947, 8.653559, 0.0, 0.0, 7.849745, 0.0, 0.0, 0.0], "parents": [2147483647, 0, 0, 1, 1, 2, 2, 5, 5], "right_children": [2, 4, 6, -1, -1, 8, -1, -1, -1], "split_conditions": [144.0, 108.0, 9221112.0, -0.050560214, -0.42841557, 7825284.0, 0.43509173, 0.08644976, -0.21308143], "split_indices": [2, 2, 2, 0, 0, 2, 0, 0, 0], "split_type": [0, 0, 0, 0, 0, 0, 0, 0, 0], "sum_hessian": [405.34836, 208.25877, 197.0896, 205.70537, 2.5534039, 191.86494, 5.224648, 184.5754, 7.2895517], "tree_param": {"num_deleted": "0", "num_feature": "6", "num_nodes": "9", "size_leaf_vector": "1"}}, {"base_weights": [-0.03611327], "categories": [], "categories_nodes": [], "categories_segments": [], "categories_sizes": [], "default_left": [0], "id": 69, "left_children": [-1], "loss_changes": [0.0], "parents": [2147483647], "right_children": [-1], "split_conditions": [-0.010833981], "split_indices": [0], "split_type": [0], "sum_hessian": [397.18387], "tree_param": {"num_deleted": "0", "num_feature": "6", "num_nodes": "1", "size_leaf_vector": "1"}}, {"base_weights": [0.037038807, -0.00056550786, 0.20379661, -0.033217918, 0.12741771, 0.13555476, -0.0026526237], "categories": [], "categories_nodes": [], "categories_segments": [], "categories_sizes": [], "default_left": [0, 0, 0, 0, 0, 0, 0], "id": 70, "left_children": [1, 3, -1, -1, 5, -1, -1], "loss_changes": [9.49259, 5.2626667, 0.0, 0.0, 7.6372347, 0.0, 0.0], "parents": [2147483647, 0, 0, 1, 1, 4, 4], "right_children": [2, 4, -1, -1, 6, -1, -1], "split_conditions": [5169756.0, 48.0, 0.20379661, -0.033217918, 3432.0, 0.13555476, -0.0026526237], "split_indices": [2, 2, 0, 0, 2, 0, 0], "split_type": [0, 0, 0, 0, 0, 0, 0], "sum_hessian": [392.00937, 371.27133, 20.738028, 199.60083, 171.67052, 50.090378, 121.58013], "tree_param": {"num_deleted": "0", "num_feature": "6", "num_nodes": "7", "size_leaf_vector": "1"}}, {"base_weights": [0.007252976], "categories": [], "categories_nodes": [], "categories_segments": [], "categories_sizes": [], "default_left": [0], "id": 71, "left_children": [-1], "loss_changes": [0.0], "parents": [2147483647], "right_children": [-1], "split_conditions": [0.002175893], "split_indices": [0], "split_type": [0], "sum_hessian": [398.85056], "tree_param": {"num_deleted": "0", "num_feature": "6", "num_nodes": "1", "size_leaf_vector": "1"}}, {"base_weights": [-0.02624787, -0.08534576, 0.094034925], "categories": [], "categories_nodes": [], "categories_segments": [], "categories_sizes": [], "default_left": [0, 0, 0], "id": 72, "left_children": [1, -1, -1], "loss_changes": [35.80011, 0.0, 0.0], "parents": [2147483647, 0, 0], "right_children": [2, -1, -1], "split_conditions": [12.5, -0.08534576, 0.094034925], "split_indices": [1, 0, 0], "split_type": [0, 0, 0], "sum_hessian": [406.08832, 230.79817, 175.29015], "tree_param": {"num_deleted": "0", "num_feature": "6", "num_nodes": "3", "size_leaf_vector": "1"}}, {"base_weights": [-0.02357895, -0.094335005, 0.01721594], "categories": [], "categories_nodes": [], "categories_segments": [], "categories_sizes": [], "default_left": [0, 0, 0], "id": 73, "left_children": [1, -1, -1], "loss_changes": [9.30312, 0.0, 0.0], "parents": [2147483647, 0, 0], "right_children": [2, -1, -1], "split_conditions": [5232.0, -0.094335005, 0.01721594], "split_indices": [3, 0, 0], "split_type": [0, 0, 0], "sum_hessian": [393.26236, 85.00286, 308.2595], "tree_param": {"num_deleted": "0", "num_feature": "6", "num_nodes": "3", "size_leaf_vector": "1"}}, {"base_weights": [-0.012286031, 0.0041025956, -0.21361692], "categories": [], "categories_nodes": [], "categories_segments": [], "categories_sizes": [], "default_left": [0, 0, 0], "id": 74, "left_children": [1, -1, -1], "loss_changes": [7.233799, 0.0, 0.0], "parents": [2147483647, 0, 0], "right_children": [2, -1, -1], "split_conditions": [98.8, 0.0041025956, -0.21361692], "split_indices": [4, 0, 0], "split_type": [0, 0, 0], "sum_hessian": [396.64786, 383.4041, 13.243762], "tree_param": {"num_deleted": "0", "num_feature": "6", "num_nodes": "3", "size_leaf_vector": "1"}}, {"base_weights": [-0.031996697, -0.06201284, 0.11242052], "categories": [], "categories_nodes": [], "categories_segments": [], "categories_sizes": [], "default_left": [0, 0, 0], "id": 75, "left_children": [1, -1, -1], "loss_changes": [28.181723, 0.0, 0.0], "parents": [2147483647, 0, 0], "right_children": [2, -1, -1], "split_conditions": [25.0, -0.06201284, 0.11242052], "split_indices": [1, 0, 0], "split_type": [0, 0, 0], "sum_hessian": [394.49356, 276.29993, 118.193634], "tree_param": {"num_deleted": "0", "num_feature": "6", "num_nodes": "3", "size_leaf_vector": "1"}}, {"base_weights": [0.0626054, -0.02604135, 0.2117819, 0.07952389, -0.13692226], "categories": [], "categories_nodes": [], "categories_segments": [], "categories_sizes": [], "default_left": [0, 0, 0, 0, 0], "id": 76, "left_children": [1, -1, 3, -1, -1], "loss_changes": [8.982179, 0.0, 7.298208, 0.0, 0.0], "parents": [2147483647, 0, 0, 2, 2], "right_children": [2, -1, 4, -1, -1], "split_conditions": [47.0, -0.02604135, 757.0, 0.07952389, -0.13692226], "split_indices": [5, 0, 5, 0, 0], "split_type": [0, 0, 0, 0, 0], "sum_hessian": [401.17233, 200.63826, 200.53406, 186.27893, 14.255133], "tree_param": {"num_deleted": "0", "num_feature": "6", "num_nodes": "5", "size_leaf_vector": "1"}}, {"base_weights": [0.003057764, -0.0752063, 0.023446271], "categories": [], "categories_nodes": [], "categories_segments": [], "categories_sizes": [], "default_left": [0, 0, 0], "id": 77, "left_children": [1, -1, -1], "loss_changes": [7.455198, 0.0, 0.0], "parents": [2147483647, 0, 0], "right_children": [2, -1, -1], "split_conditions": [14.0, -0.0752063, 0.023446271], "split_indices": [5, 0, 0], "split_type": [0, 0, 0], "sum_hessian": [389.21014, 88.34859, 300.86157], "tree_param": {"num_deleted": "0", "num_feature": "6", "num_nodes": "3", "size_leaf_vector": "1"}}, {"base_weights": [-0.030103097, -0.06450174, 0.07534452], "categories": [], "categories_nodes": [], "categories_segments": [], "categories_sizes": [], "default_left": [0, 0, 0], "id": 78, "left_children": [1, -1, -1], "loss_changes": [20.860363, 0.0, 0.0], "parents": [2147483647, 0, 0], "right_children": [2, -1, -1], "split_conditions": [12.5, -0.06450174, 0.07534452], "split_indices": [1, 0, 0], "split_type": [0, 0, 0], "sum_hessian": [399.09042, 240.93105, 158.15938], "tree_param": {"num_deleted": "0", "num_feature": "6", "num_nodes": "3", "size_leaf_vector": "1"}}, {"base_weights": [-0.012310846], "categories": [], "categories_nodes": [], "categories_segments": [], "categories_sizes": [], "default_left": [0], "id": 79, "left_children": [-1], "loss_changes": [0.0], "parents": [2147483647], "right_children": [-1], "split_conditions": [-0.003693254], "split_indices": [0], "split_type": [0], "sum_hessian": [389.9416], "tree_param": {"num_deleted": "0", "num_feature": "6", "num_nodes": "1", "size_leaf_vector": "1"}}, {"base_weights": [0.017684417], "categories": [], "categories_nodes": [], "categories_segments": [], "categories_sizes": [], "default_left": [0], "id": 80, "left_children": [-1], "loss_changes": [0.0], "parents": [2147483647], "right_children": [-1], "split_conditions": [0.005305325], "split_indices": [0], "split_type": [0], "sum_hessian": [384.92392], "tree_param": {"num_deleted": "0", "num_feature": "6", "num_nodes": "1", "size_leaf_vector": "1"}}, {"base_weights": [0.013486571, -0.17141612, 0.07049584, 0.009010537, 0.16494542], "categories": [], "categories_nodes": [], "categories_segments": [], "categories_sizes": [], "default_left": [0, 0, 0, 0, 0], "id": 81, "left_children": [1, -1, 3, -1, -1], "loss_changes": [13.402145, 0.0, 7.0822773, 0.0, 0.0], "parents": [2147483647, 0, 0, 2, 2], "right_children": [2, -1, 4, -1, -1], "split_conditions": [4.0, -0.17141612, 453.0, 0.009010537, 0.16494542], "split_indices": [5, 0, 5, 0, 0], "split_type": [0, 0, 0, 0, 0], "sum_hessian": [399.73718, 34.701572, 365.03558, 337.6006, 27.434998], "tree_param": {"num_deleted": "0", "num_feature": "6", "num_nodes": "5", "size_leaf_vector": "1"}}, {"base_weights": [0.05249958, -0.046274688, 0.2350846, 0.11382344, 0.015939292], "categories": [], "categories_nodes": [], "categories_segments": [], "categories_sizes": [], "default_left": [0, 0, 0, 0, 0], "id": 82, "left_children": [1, -1, 3, -1, -1], "loss_changes": [14.296637, 0.0, 5.25832, 0.0, 0.0], "parents": [2147483647, 0, 0, 2, 2], "right_children": [2, -1, 4, -1, -1], "split_conditions": [48.0, -0.046274688, 575292.0, 0.11382344, 0.015939292], "split_indices": [2, 0, 2, 0, 0], "split_type": [0, 0, 0, 0, 0], "sum_hessian": [376.76645, 176.76424, 200.00223, 110.92809, 89.074135], "tree_param": {"num_deleted": "0", "num_feature": "6", "num_nodes": "5", "size_leaf_vector": "1"}}, {"base_weights": [-0.046869207, -0.08385143, 0.07536162], "categories": [], "categories_nodes": [], "categories_segments": [], "categories_sizes": [], "default_left": [0, 0, 0], "id": 83, "left_children": [1, -1, -1], "loss_changes": [26.783068, 0.0, 0.0], "parents": [2147483647, 0, 0], "right_children": [2, -1, -1], "split_conditions": [10.0, -0.08385143, 0.07536162], "split_indices": [1, 0, 0], "split_type": [0, 0, 0], "sum_hessian": [384.2293, 215.83829, 168.39102], "tree_param": {"num_deleted": "0", "num_feature": "6", "num_nodes": "3", "size_leaf_vector": "1"}}, {"base_weights": [0.048088048, -0.057316788, 0.26306927, 0.15960807, 0.04704269], "categories": [], "categories_nodes": [], "categories_segments": [], "categories_sizes": [], "default_left": [0, 0, 0, 0, 0], "id": 84, "left_children": [1, -1, 3, -1, -1], "loss_changes": [19.259354, 0.0, 5.5518246, 0.0, 0.0], "parents": [2147483647, 0, 0, 2, 2], "right_children": [2, -1, 4, -1, -1], "split_conditions": [48.0, -0.057316788, 5148.0, 0.15960807, 0.04704269], "split_indices": [2, 0, 2, 0, 0], "split_type": [0, 0, 0, 0, 0], "sum_hessian": [372.6344, 176.45645, 196.17795, 54.422142, 141.75581], "tree_param": {"num_deleted": "0", "num_feature": "6", "num_nodes": "5", "size_leaf_vector": "1"}}, {"base_weights": [-0.036246087, -0.0018389936, -0.23082311], "categories": [], "categories_nodes": [], "categories_segments": [], "categories_sizes": [], "default_left": [0, 0, 0], "id": 85, "left_children": [1, -1, -1], "loss_changes": [8.006683, 0.0, 0.0], "parents": [2147483647, 0, 0], "right_children": [2, -1, -1], "split_conditions": [543.0, -0.0018389936, -0.23082311], "split_indices": [0, 0, 0], "split_type": [0, 0, 0], "sum_hessian": [361.8342, 348.52618, 13.308011], "tree_param": {"num_deleted": "0", "num_feature": "6", "num_nodes": "3", "size_leaf_vector": "1"}}, {"base_weights": [-0.055821925, -0.16599295, 0.010407688], "categories": [], "categories_nodes": [], "categories_segments": [], "categories_sizes": [], "default_left": [0, 0, 0], "id": 86, "left_children": [1, -1, -1], "loss_changes": [16.548567, 0.0, 0.0], "parents": [2147483647, 0, 0], "right_children": [2, -1, -1], "split_conditions": [7.0, -0.16599295, 0.010407688], "split_indices": [5, 0, 0], "split_type": [0, 0, 0], "sum_hessian": [366.07693, 55.56506, 310.51187], "tree_param": {"num_deleted": "0", "num_feature": "6", "num_nodes": "3", "size_leaf_vector": "1"}}, {"base_weights": [0.015610742, -0.16043559, 0.020466898], "categories": [], "categories_nodes": [], "categories_segments": [], "categories_sizes": [], "default_left": [0, 0, 0], "id": 87, "left_children": [1, -1, -1], "loss_changes": [10.696688, 0.0, 0.0], "parents": [2147483647, 0, 0], "right_children": [2, -1, -1], "split_conditions": [4.0, -0.16043559, 0.020466898], "split_indices": [5, 0, 0], "split_type": [0, 0, 0], "sum_hessian": [367.1318, 31.232504, 335.8993], "tree_param": {"num_deleted": "0", "num_feature": "6", "num_nodes": "3", "size_leaf_vector": "1"}}, {"base_weights": [0.038105804, -0.018171163, 0.19808191, 0.08016841, -0.19175598], "categories": [], "categories_nodes": [], "categories_segments": [], "categories_sizes": [], "default_left": [0, 0, 0, 0, 0], "id": 88, "left_children": [1, -1, 3, -1, -1], "loss_changes": [5.8634744, 0.0, 8.371393, 0.0, 0.0], "parents": [2147483647, 0, 0, 2, 2], "right_children": [2, -1, 4, -1, -1], "split_conditions": [10.96, -0.018171163, 99.92, 0.08016841, -0.19175598], "split_indices": [4, 0, 4, 0, 0], "split_type": [0, 0, 0, 0, 0], "sum_hessian": [369.67838, 229.02977, 140.6486, 130.54808, 10.100527], "tree_param": {"num_deleted": "0", "num_feature": "6", "num_nodes": "5", "size_leaf_vector": "1"}}, {"base_weights": [0.06323807], "categories": [], "categories_nodes": [], "categories_segments": [], "categories_sizes": [], "default_left": [0], "id": 89, "left_children": [-1], "loss_changes": [0.0], "parents": [2147483647], "right_children": [-1], "split_conditions": [0.01897142], "split_indices": [0], "split_type": [0], "sum_hessian": [364.48685], "tree_param": {"num_deleted": "0", "num_feature": "6", "num_nodes": "1", "size_leaf_vector": "1"}}, {"base_weights": [-0.015759485], "categories": [], "categories_nodes": [], "categories_segments": [], "categories_sizes": [], "default_left": [0], "id": 90, "left_children": [-1], "loss_changes": [0.0], "parents": [2147483647], "right_children": [-1], "split_conditions": [-0.0047278455], "split_indices": [0], "split_type": [0], "sum_hessian": [362.22028], "tree_param": {"num_deleted": "0", "num_feature": "6", "num_nodes": "1", "size_leaf_vector": "1"}}, {"base_weights": [-0.045258928], "categories": [], "categories_nodes": [], "categories_segments": [], "categories_sizes": [], "default_left": [0], "id": 91, "left_children": [-1], "loss_changes": [0.0], "parents": [2147483647], "right_children": [-1], "split_conditions": [-0.013577679], "split_indices": [0], "split_type": [0], "sum_hessian": [361.92615], "tree_param": {"num_deleted": "0", "num_feature": "6", "num_nodes": "1", "size_leaf_vector": "1"}}, {"base_weights": [-0.007884069], "categories": [], "categories_nodes": [], "categories_segments": [], "categories_sizes": [], "default_left": [0], "id": 92, "left_children": [-1], "loss_changes": [0.0], "parents": [2147483647], "right_children": [-1], "split_conditions": [-0.0023652208], "split_indices": [0], "split_type": [0], "sum_hessian": [350.66525], "tree_param": {"num_deleted": "0", "num_feature": "6", "num_nodes": "1", "size_leaf_vector": "1"}}, {"base_weights": [-0.029212682, 0.05081508, -0.0409421], "categories": [], "categories_nodes": [], "categories_segments": [], "categories_sizes": [], "default_left": [0, 0, 0], "id": 93, "left_children": [1, -1, -1], "loss_changes": [7.6407332, 0.0, 0.0], "parents": [2147483647, 0, 0], "right_children": [2, -1, -1], "split_conditions": [8.0, 0.05081508, -0.0409421], "split_indices": [0, 0, 0], "split_type": [0, 0, 0], "sum_hessian": [356.60727, 124.85537, 231.75189], "tree_param": {"num_deleted": "0", "num_feature": "6", "num_nodes": "3", "size_leaf_vector": "1"}}, {"base_weights": [-0.03743338, -0.05407372, 0.06506245], "categories": [], "categories_nodes": [], "categories_segments": [], "categories_sizes": [], "default_left": [0, 0, 0], "id": 94, "left_children": [1, -1, -1], "loss_changes": [13.433235, 0.0, 0.0], "parents": [2147483647, 0, 0], "right_children": [2, -1, -1], "split_conditions": [16.666666, -0.05407372, 0.06506245], "split_indices": [1, 0, 0], "split_type": [0, 0, 0], "sum_hessian": [367.79828, 235.7173, 132.081], "tree_param": {"num_deleted": "0", "num_feature": "6", "num_nodes": "3", "size_leaf_vector": "1"}}, {"base_weights": [0.022238009, -0.036513638, 0.05361787], "categories": [], "categories_nodes": [], "categories_segments": [], "categories_sizes": [], "default_left": [0, 0, 0], "id": 95, "left_children": [1, -1, -1], "loss_changes": [8.257274, 0.0, 0.0], "parents": [2147483647, 0, 0], "right_children": [2, -1, -1], "split_conditions": [312.0, -0.036513638, 0.05361787], "split_indices": [2, 0, 0], "split_type": [0, 0, 0], "sum_hessian": [364.5925, 190.01971, 174.57278], "tree_param": {"num_deleted": "0", "num_feature": "6", "num_nodes": "3", "size_leaf_vector": "1"}}, {"base_weights": [0.034206953, 0.019848702, -0.5071919, -0.32006237, 0.038320236], "categories": [], "categories_nodes": [], "categories_segments": [], "categories_sizes": [], "default_left": [0, 0, 0, 0, 0], "id": 96, "left_children": [1, -1, 3, -1, -1], "loss_changes": [6.1533012, 0.0, 7.183085, 0.0, 0.0], "parents": [2147483647, 0, 0, 2, 2], "right_children": [2, -1, 4, -1, -1], "split_conditions": [97.31, 0.019848702, 100.0, -0.32006237, 0.038320236], "split_indices": [4, 0, 4, 0, 0], "split_type": [0, 0, 0, 0, 0], "sum_hessian": [352.73, 333.89978, 18.83022, 9.646546, 9.183674], "tree_param": {"num_deleted": "0", "num_feature": "6", "num_nodes": "5", "size_leaf_vector": "1"}}, {"base_weights": [-0.0048463535, -0.07767199, 0.030042298], "categories": [], "categories_nodes": [], "categories_segments": [], "categories_sizes": [], "default_left": [0, 0, 0], "id": 97, "left_children": [1, -1, -1], "loss_changes": [9.67424, 0.0, 0.0], "parents": [2147483647, 0, 0], "right_children": [2, -1, -1], "split_conditions": [20.0, -0.07767199, 0.030042298], "split_indices": [5, 0, 0], "split_type": [0, 0, 0], "sum_hessian": [360.7243, 105.048935, 255.67538], "tree_param": {"num_deleted": "0", "num_feature": "6", "num_nodes": "3", "size_leaf_vector": "1"}}, {"base_weights": [0.026791165, -0.027572788, 0.11465788], "categories": [], "categories_nodes": [], "categories_segments": [], "categories_sizes": [], "default_left": [0, 0, 0], "id": 98, "left_children": [1, -1, -1], "loss_changes": [14.971959, 0.0, 0.0], "parents": [2147483647, 0, 0], "right_children": [2, -1, -1], "split_conditions": [33.333332, -0.027572788, 0.11465788], "split_indices": [1, 0, 0], "split_type": [0, 0, 0], "sum_hessian": [353.06793, 265.22647, 87.84147], "tree_param": {"num_deleted": "0", "num_feature": "6", "num_nodes": "3", "size_leaf_vector": "1"}}, {"base_weights": [0.01517282, -0.03803559, 0.17270452, 0.09790189, -0.09611284, -0.49357447, 0.01000433], "categories": [], "categories_nodes": [], "categories_segments": [], "categories_sizes": [], "default_left": [0, 0, 0, 0, 0, 0, 0], "id": 99, "left_children": [1, -1, 3, -1, 5, -1, -1], "loss_changes": [8.042771, 0.0, 7.070182, 0.0, 12.640371, 0.0, 0.0], "parents": [2147483647, 0, 0, 2, 2, 4, 4], "right_children": [2, -1, 4, -1, 6, -1, -1], "split_conditions": [312.0, -0.03803559, 2466048.0, 0.09790189, 2566596.0, -0.49357447, 0.01000433], "split_indices": [2, 0, 2, 0, 2, 0, 0], "split_type": [0, 0, 0, 0, 0, 0, 0], "sum_hessian": [357.66882, 188.23653, 169.43228, 107.677956, 61.75433, 3.8597527, 57.894577], "tree_param": {"num_deleted": "0", "num_feature": "6", "num_nodes": "7", "size_leaf_vector": "1"}}, {"base_weights": [0.023477186, -0.0013568455, 0.22847413, 0.15498881, -0.0088132955], "categories": [], "categories_nodes": [], "categories_segments": [], "categories_sizes": [], "default_left": [0, 0, 0, 0, 0], "id": 100, "left_children": [1, 3, -1, -1, -1], "loss_changes": [6.4923472, 5.0024014, 0.0, 0.0, 0.0], "parents": [2147483647, 0, 0, 1, 1], "right_children": [2, 4, -1, -1, -1], "split_conditions": [9956616.0, 264.0, 0.22847413, 0.15498881, -0.0088132955], "split_indices": [3, 3, 0, 0, 0], "split_type": [0, 0, 0, 0, 0], "sum_hessian": [353.13455, 342.6055, 10.529055, 16.687466, 325.91803], "tree_param": {"num_deleted": "0", "num_feature": "6", "num_nodes": "5", "size_leaf_vector": "1"}}, {"base_weights": [-0.03285568, -0.015720353, 0.33764875], "categories": [], "categories_nodes": [], "categories_segments": [], "categories_sizes": [], "default_left": [0, 0, 0], "id": 101, "left_children": [1, -1, -1], "loss_changes": [8.14905, 0.0, 0.0], "parents": [2147483647, 0, 0], "right_children": [2, -1, -1], "split_conditions": [10870044.0, -0.015720353, 0.33764875], "split_indices": [3, 0, 0], "split_type": [0, 0, 0], "sum_hessian": [356.32663, 351.3528, 4.973805], "tree_param": {"num_deleted": "0", "num_feature": "6", "num_nodes": "3", "size_leaf_vector": "1"}}, {"base_weights": [0.007378373, -0.17545597, 0.046269212, 0.060733166, -0.08389974], "categories": [], "categories_nodes": [], "categories_segments": [], "categories_sizes": [], "default_left": [0, 0, 0, 0, 0], "id": 102, "left_children": [1, 3, -1, -1, -1], "loss_changes": [9.381867, 6.1867237, 0.0, 0.0, 0.0], "parents": [2147483647, 0, 0, 1, 1], "right_children": [2, 4, -1, -1, -1], "split_conditions": [39.0, 4.0, 0.046269212, 0.060733166, -0.08389974], "split_indices": [5, 5, 0, 0, 0], "split_type": [0, 0, 0, 0, 0], "sum_hessian": [347.4145, 154.66208, 192.75243, 33.22702, 121.43505], "tree_param": {"num_deleted": "0", "num_feature": "6", "num_nodes": "5", "size_leaf_vector": "1"}}, {"base_weights": [-0.03503598, 0.03570677, -0.11653923, -0.0031179343, 0.12030526], "categories": [], "categories_nodes": [], "categories_segments": [], "categories_sizes": [], "default_left": [0, 0, 0, 0, 0], "id": 103, "left_children": [1, 3, -1, -1, -1], "loss_changes": [8.823719, 4.9639263, 0.0, 0.0, 0.0], "parents": [2147483647, 0, 0, 1, 1], "right_children": [2, 4, -1, -1, -1], "split_conditions": [135.0, 82.0, -0.11653923, -0.0031179343, 0.12030526], "split_indices": [0, 0, 0, 0, 0], "split_type": [0, 0, 0, 0, 0], "sum_hessian": [351.359, 293.5088, 57.850224, 261.48285, 32.025917], "tree_param": {"num_deleted": "0", "num_feature": "6", "num_nodes": "5", "size_leaf_vector": "1"}}, {"base_weights": [0.03064645], "categories": [], "categories_nodes": [], "categories_segments": [], "categories_sizes": [], "default_left": [0], "id": 104, "left_children": [-1], "loss_changes": [0.0], "parents": [2147483647], "right_children": [-1], "split_conditions": [0.009193935], "split_indices": [0], "split_type": [0], "sum_hessian": [352.7562], "tree_param": {"num_deleted": "0", "num_feature": "6", "num_nodes": "1", "size_leaf_vector": "1"}}, {"base_weights": [-0.034830965], "categories": [], "categories_nodes": [], "categories_segments": [], "categories_sizes": [], "default_left": [0], "id": 105, "left_children": [-1], "loss_changes": [0.0], "parents": [2147483647], "right_children": [-1], "split_conditions": [-0.01044929], "split_indices": [0], "split_type": [0], "sum_hessian": [367.88074], "tree_param": {"num_deleted": "0", "num_feature": "6", "num_nodes": "1", "size_leaf_vector": "1"}}, {"base_weights": [-0.035257325], "categories": [], "categories_nodes": [], "categories_segments": [], "categories_sizes": [], "default_left": [0], "id": 106, "left_children": [-1], "loss_changes": [0.0], "parents": [2147483647], "right_children": [-1], "split_conditions": [-0.010577198], "split_indices": [0], "split_type": [0], "sum_hessian": [348.74716], "tree_param": {"num_deleted": "0", "num_feature": "6", "num_nodes": "1", "size_leaf_vector": "1"}}, {"base_weights": [-0.008794271], "categories": [], "categories_nodes": [], "categories_segments": [], "categories_sizes": [], "default_left": [0], "id": 107, "left_children": [-1], "loss_changes": [0.0], "parents": [2147483647], "right_children": [-1], "split_conditions": [-0.0026382816], "split_indices": [0], "split_type": [0], "sum_hessian": [359.40997], "tree_param": {"num_deleted": "0", "num_feature": "6", "num_nodes": "1", "size_leaf_vector": "1"}}, {"base_weights": [0.05528942], "categories": [], "categories_nodes": [], "categories_segments": [], "categories_sizes": [], "default_left": [0], "id": 108, "left_children": [-1], "loss_changes": [0.0], "parents": [2147483647], "right_children": [-1], "split_conditions": [0.016586827], "split_indices": [0], "split_type": [0], "sum_hessian": [355.8185], "tree_param": {"num_deleted": "0", "num_feature": "6", "num_nodes": "1", "size_leaf_vector": "1"}}, {"base_weights": [-0.059604544], "categories": [], "categories_nodes": [], "categories_segments": [], "categories_sizes": [], "default_left": [0], "id": 109, "left_children": [-1], "loss_changes": [0.0], "parents": [2147483647], "right_children": [-1], "split_conditions": [-0.017881364], "split_indices": [0], "split_type": [0], "sum_hessian": [360.6116], "tree_param": {"num_deleted": "0", "num_feature": "6", "num_nodes": "1", "size_leaf_vector": "1"}}]}, "name": "gbtree"}, "learner_model_param": {"base_score": "7.459341E-1", "boost_from_average": "1", "num_class": "0", "num_feature": "6", "num_target": "1"}, "objective": {"name": "binary:logistic", "reg_loss_param": {"scale_pos_weight": "1"}}}, "version": [2, 0, 3]}